  -2.4692023e-01   3.8216995e-03   1.9695268e-01   3.9073952e-01   4.5910402e-01   5.0430749e-02  -3.5934442e-01  -3.4869000e-01  -2.4227406e-01   3.4096384e-01  -2.4667839e-01   3.1324121e-01  -2.5750849e-01   4.2910967e-01  -1.5018207e-01  -3.0505597e-01  -2.5078376e-01   1.1418340e-01  -2.6798036e-02  -1.4844826e-01   3.3309983e-01   8.6952583e-02   5.1414932e-02   4.1713286e-01  -2.1420084e-01   2.5914297e-01   2.5548506e-01  -1.1781303e-01   6.8042866e-02  -4.2390296e-01  -4.4233839e-01   3.4192378e-02   2.8255214e-01   4.3414045e-01  -3.6992429e-01   6.5202364e-02  -3.0279724e-02  -4.8683846e-01  -1.6214991e-01  -3.3646103e-01   2.9284965e-01  -1.8997197e-01   2.9325725e-02  -3.3715146e-01   1.0214502e-01  -2.3586161e-01   1.5461543e-01   1.9030817e-01   2.4699840e-01  -5.0410107e-02  -4.1567020e-01  -2.5213273e-01   4.1250429e-01  -3.5590545e-01   3.2227838e-01   3.0849025e-02   5.0402726e-01  -4.1534868e-01  -6.0508972e-02  -4.1056415e-01   4.6220412e-01  -4.8732615e-01   2.7798633e-01   3.2429205e-01   3.6134181e-01  -4.2146418e-01  -9.7595392e-02  -2.4638709e-01   3.0035222e-01  -6.6022323e-02   4.1181516e-01  -3.1569621e-01  -2.3878791e-01  -3.5654431e-01  -3.6278446e-01   3.1108735e-01   5.4301756e-02   6.0467017e-02  -3.4636485e-01   3.7218276e-01   1.4064350e-01